<?xml version="1.0"?>
<opencv_storage>
<stage3>
  <maxWeakCount>8</maxWeakCount>
  <stageThreshold>-9.9518674612045288e-01</stageThreshold>
  <weakClassifiers>
    <_>
      <internalNodes>
        0 -1 56729 4.6300396323204041e-02</internalNodes>
      <leafValues>
        -5.8479529619216919e-01 6.0449051856994629e-01</leafValues></_>
    <_>
      <internalNodes>
        0 -1 79401 -4.2503238655626774e-03</internalNodes>
      <leafValues>
        4.7178006172180176e-01 -5.3117567300796509e-01</leafValues></_>
    <_>
      <internalNodes>
        0 -1 97272 4.2778011411428452e-03</internalNodes>
      <leafValues>
        -5.7870030403137207e-01 4.6237978339195251e-01</leafValues></_>
    <_>
      <internalNodes>
        0 -1 95540 -1.0886419564485550e-02</internalNodes>
      <leafValues>
        4.2023092508316040e-01 -5.3128045797348022e-01</leafValues></_>
    <_>
      <internalNodes>
        0 -1 98335 -6.0510876210173592e-05</internalNodes>
      <leafValues>
        3.5808789730072021e-01 -6.1908656358718872e-01</leafValues></_>
    <_>
      <internalNodes>
        0 -1 67602 -2.8784296009689569e-03</internalNodes>
      <leafValues>
        2.9643666744232178e-01 -7.4004751443862915e-01</leafValues></_>
    <_>
      <internalNodes>
        0 -1 65310 -6.1733729671686888e-04</internalNodes>
      <leafValues>
        -8.1197667121887207e-01 1.8318076431751251e-01</leafValues></_>
    <_>
      <internalNodes>
        0 -1 36422 2.4549113586544991e-03</internalNodes>
      <leafValues>
        -7.4555617570877075e-01 2.4025805294513702e-01</leafValues></_></weakClassifiers></stage3>
</opencv_storage>
