<?xml version="1.0"?>
<opencv_storage>
<stage1>
  <maxWeakCount>5</maxWeakCount>
  <stageThreshold>-1.1015086174011230e+00</stageThreshold>
  <weakClassifiers>
    <_>
      <internalNodes>
        0 -1 38761 4.9993798136711121e-02</internalNodes>
      <leafValues>
        -7.1566265821456909e-01 7.3456221818923950e-01</leafValues></_>
    <_>
      <internalNodes>
        0 -1 25536 3.7605378776788712e-02</internalNodes>
      <leafValues>
        -6.4592516422271729e-01 5.9587007761001587e-01</leafValues></_>
    <_>
      <internalNodes>
        0 -1 12499 4.9825594760477543e-03</internalNodes>
      <leafValues>
        -5.8999919891357422e-01 4.6087276935577393e-01</leafValues></_>
    <_>
      <internalNodes>
        0 -1 186 6.8666171282529831e-03</internalNodes>
      <leafValues>
        -5.2542579174041748e-01 4.3165570497512817e-01</leafValues></_>
    <_>
      <internalNodes>
        0 -1 43519 1.7809908837080002e-02</internalNodes>
      <leafValues>
        -5.4634368419647217e-01 4.1842275857925415e-01</leafValues></_></weakClassifiers></stage1>
</opencv_storage>
