<?xml version="1.0"?>
<opencv_storage>
<stage6>
  <maxWeakCount>5</maxWeakCount>
  <stageThreshold>-1.1974856853485107e+00</stageThreshold>
  <weakClassifiers>
    <_>
      <internalNodes>
        0 -1 74073 -3.7782972212880850e-03</internalNodes>
      <leafValues>
        7.9170984029769897e-01 -4.9345794320106506e-01</leafValues></_>
    <_>
      <internalNodes>
        0 -1 29829 -3.7558464100584388e-04</internalNodes>
      <leafValues>
        8.4375524520874023e-01 -5.2879804372787476e-01</leafValues></_>
    <_>
      <internalNodes>
        0 -1 34608 -4.6750293113291264e-03</internalNodes>
      <leafValues>
        -7.5435751676559448e-01 6.9011080265045166e-01</leafValues></_>
    <_>
      <internalNodes>
        0 -1 74329 1.0856202803552151e-02</internalNodes>
      <leafValues>
        -5.1063686609268188e-01 1.</leafValues></_>
    <_>
      <internalNodes>
        0 -1 58638 -1.0426507331430912e-02</internalNodes>
      <leafValues>
        1. -3.5470360517501831e-01</leafValues></_></weakClassifiers></stage6>
</opencv_storage>
