<?xml version="1.0"?>
<opencv_storage>
<stage4>
  <maxWeakCount>10</maxWeakCount>
  <stageThreshold>-6.0590875148773193e-01</stageThreshold>
  <weakClassifiers>
    <_>
      <internalNodes>
        0 -1 56679 5.0727911293506622e-03</internalNodes>
      <leafValues>
        -3.1388330459594727e-01 6.5403789281845093e-01</leafValues></_>
    <_>
      <internalNodes>
        0 -1 74320 -4.8732385039329529e-03</internalNodes>
      <leafValues>
        6.3003027439117432e-01 -3.6567428708076477e-01</leafValues></_>
    <_>
      <internalNodes>
        0 -1 34154 1.7613961827009916e-03</internalNodes>
      <leafValues>
        -6.2884467840194702e-01 4.4052177667617798e-01</leafValues></_>
    <_>
      <internalNodes>
        0 -1 30889 1.1167248710989952e-02</internalNodes>
      <leafValues>
        -3.3329617977142334e-01 7.6818716526031494e-01</leafValues></_>
    <_>
      <internalNodes>
        0 -1 80479 -1.4396706828847528e-03</internalNodes>
      <leafValues>
        5.5441629886627197e-01 -4.2023682594299316e-01</leafValues></_>
    <_>
      <internalNodes>
        0 -1 59662 3.2180068083107471e-03</internalNodes>
      <leafValues>
        2.8715771436691284e-01 -7.3600262403488159e-01</leafValues></_>
    <_>
      <internalNodes>
        0 -1 61984 -7.8160350676625967e-04</internalNodes>
      <leafValues>
        -6.3427871465682983e-01 3.0618700385093689e-01</leafValues></_>
    <_>
      <internalNodes>
        0 -1 57415 -5.4378872737288475e-03</internalNodes>
      <leafValues>
        4.1472321748733521e-01 -4.9976333975791931e-01</leafValues></_>
    <_>
      <internalNodes>
        0 -1 34495 1.3041684404015541e-02</internalNodes>
      <leafValues>
        -7.6255691051483154e-01 2.6631867885589600e-01</leafValues></_>
    <_>
      <internalNodes>
        0 -1 36038 -3.1520277261734009e-02</internalNodes>
      <leafValues>
        -8.3921933174133301e-01 2.4105191230773926e-01</leafValues></_></weakClassifiers></stage4>
</opencv_storage>
